<?xml version="1.0"?>
<opencv_storage>
<stage4>
  <maxWeakCount>5</maxWeakCount>
  <stageThreshold>-4.1981714963912964e-01</stageThreshold>
  <weakClassifiers>
    <_>
      <internalNodes>
        0 -1 53122 1.7745800316333771e-02</internalNodes>
      <leafValues>
        -6.6153848171234131e-01 7.3750001192092896e-01</leafValues></_>
    <_>
      <internalNodes>
        0 -1 73517 1.5486642951145768e-04</internalNodes>
      <leafValues>
        -7.9804128408432007e-01 5.3605800867080688e-01</leafValues></_>
    <_>
      <internalNodes>
        0 -1 63955 3.2995373010635376e-02</internalNodes>
      <leafValues>
        -4.9926209449768066e-01 7.9073441028594971e-01</leafValues></_>
    <_>
      <internalNodes>
        0 -1 5498 -1.3116139173507690e-01</internalNodes>
      <leafValues>
        7.1791690587997437e-01 -4.2789438366889954e-01</leafValues></_>
    <_>
      <internalNodes>
        0 -1 8563 -6.7950028460472822e-04</internalNodes>
      <leafValues>
        6.4938902854919434e-01 -5.1299154758453369e-01</leafValues></_></weakClassifiers></stage4>
</opencv_storage>
